network unknown {
}
variable X0 {
    type discrete [ 2 ] { 0, 1 };
    property weight = None ;
}
variable X1 {
    type discrete [ 2 ] { 0, 1 };
    property weight = None ;
}
variable X10 {
    type discrete [ 2 ] { 0, 1 };
    property weight = None ;
}
variable X11 {
    type discrete [ 2 ] { 0, 1 };
    property weight = None ;
}
variable X12 {
    type discrete [ 2 ] { 0, 1 };
    property weight = None ;
}
variable X13 {
    type discrete [ 2 ] { 0, 1 };
    property weight = None ;
}
variable X14 {
    type discrete [ 2 ] { 0, 1 };
    property weight = None ;
}
variable X15 {
    type discrete [ 2 ] { 0, 1 };
    property weight = None ;
}
variable X16 {
    type discrete [ 2 ] { 0, 1 };
    property weight = None ;
}
variable X17 {
    type discrete [ 2 ] { 0, 1 };
    property weight = None ;
}
variable X18 {
    type discrete [ 2 ] { 0, 1 };
    property weight = None ;
}
variable X19 {
    type discrete [ 2 ] { 0, 1 };
    property weight = None ;
}
variable X2 {
    type discrete [ 2 ] { 0, 1 };
    property weight = None ;
}
variable X20 {
    type discrete [ 2 ] { 0, 1 };
    property weight = None ;
}
variable X21 {
    type discrete [ 2 ] { 0, 1 };
    property weight = None ;
}
variable X22 {
    type discrete [ 2 ] { 0, 1 };
    property weight = None ;
}
variable X23 {
    type discrete [ 2 ] { 0, 1 };
    property weight = None ;
}
variable X24 {
    type discrete [ 2 ] { 0, 1 };
    property weight = None ;
}
variable X25 {
    type discrete [ 2 ] { 0, 1 };
    property weight = None ;
}
variable X26 {
    type discrete [ 2 ] { 0, 1 };
    property weight = None ;
}
variable X27 {
    type discrete [ 2 ] { 0, 1 };
    property weight = None ;
}
variable X28 {
    type discrete [ 2 ] { 0, 1 };
    property weight = None ;
}
variable X29 {
    type discrete [ 2 ] { 0, 1 };
    property weight = None ;
}
variable X3 {
    type discrete [ 2 ] { 0, 1 };
    property weight = None ;
}
variable X30 {
    type discrete [ 2 ] { 0, 1 };
    property weight = None ;
}
variable X31 {
    type discrete [ 2 ] { 0, 1 };
    property weight = None ;
}
variable X32 {
    type discrete [ 2 ] { 0, 1 };
    property weight = None ;
}
variable X33 {
    type discrete [ 2 ] { 0, 1 };
    property weight = None ;
}
variable X34 {
    type discrete [ 2 ] { 0, 1 };
    property weight = None ;
}
variable X35 {
    type discrete [ 2 ] { 0, 1 };
    property weight = None ;
}
variable X36 {
    type discrete [ 2 ] { 0, 1 };
    property weight = None ;
}
variable X37 {
    type discrete [ 2 ] { 0, 1 };
    property weight = None ;
}
variable X38 {
    type discrete [ 2 ] { 0, 1 };
    property weight = None ;
}
variable X39 {
    type discrete [ 2 ] { 0, 1 };
    property weight = None ;
}
variable X4 {
    type discrete [ 2 ] { 0, 1 };
    property weight = None ;
}
variable X5 {
    type discrete [ 2 ] { 0, 1 };
    property weight = None ;
}
variable X6 {
    type discrete [ 2 ] { 0, 1 };
    property weight = None ;
}
variable X7 {
    type discrete [ 2 ] { 0, 1 };
    property weight = None ;
}
variable X8 {
    type discrete [ 2 ] { 0, 1 };
    property weight = None ;
}
variable X9 {
    type discrete [ 2 ] { 0, 1 };
    property weight = None ;
}
probability ( X0 ) {
    table 0.6381382257983801, 0.3618617742016198 ;
}
probability ( X1 ) {
    table 0.6381382257983801, 0.3618617742016198 ;
}
probability ( X10 ) {
    table 0.6381382257983801, 0.3618617742016198 ;
}
probability ( X11 ) {
    table 0.6381382257983801, 0.3618617742016198 ;
}
probability ( X12 ) {
    table 0.6381382257983801, 0.3618617742016198 ;
}
probability ( X13 ) {
    table 0.6381382257983801, 0.3618617742016198 ;
}
probability ( X14 ) {
    table 0.6381382257983801, 0.3618617742016198 ;
}
probability ( X15 ) {
    table 0.6381382257983801, 0.3618617742016198 ;
}
probability ( X16 | X3, X7, X11 ) {
    ( 0, 0, 0 ) 0.8579781192727323, 0.1420218807272678;
    ( 0, 0, 1 ) 0.4935297654821417, 0.5064702345178583;
    ( 0, 1, 0 ) 0.6983900703440418, 0.30160992965595823;
    ( 0, 1, 1 ) 0.42937864163222217, 0.5706213583677778;
    ( 1, 0, 0 ) 0.12760423955941352, 0.8723957604405864;
    ( 1, 0, 1 ) 0.5424994721229571, 0.45750052787704293;
    ( 1, 1, 0 ) 0.6318851331382269, 0.36811486686177297;
    ( 1, 1, 1 ) 0.7757445544757724, 0.2242554455242276;

}
probability ( X17 | X4 ) {
    ( 0 ) 0.47407685350981643, 0.5259231464901836;
    ( 1 ) 0.38625285252692243, 0.6137471474730776;

}
probability ( X18 ) {
    table 0.6381382257983801, 0.3618617742016198 ;
}
probability ( X19 | X2 ) {
    ( 0 ) 0.47407685350981643, 0.5259231464901836;
    ( 1 ) 0.38625285252692243, 0.6137471474730776;

}
probability ( X2 ) {
    table 0.6381382257983801, 0.3618617742016198 ;
}
probability ( X20 | X13 ) {
    ( 0 ) 0.47407685350981643, 0.5259231464901836;
    ( 1 ) 0.38625285252692243, 0.6137471474730776;

}
probability ( X21 | X8 ) {
    ( 0 ) 0.47407685350981643, 0.5259231464901836;
    ( 1 ) 0.38625285252692243, 0.6137471474730776;

}
probability ( X22 | X0, X11, X15 ) {
    ( 0, 0, 0 ) 0.8579781192727323, 0.1420218807272678;
    ( 0, 0, 1 ) 0.4935297654821417, 0.5064702345178583;
    ( 0, 1, 0 ) 0.6983900703440418, 0.30160992965595823;
    ( 0, 1, 1 ) 0.42937864163222217, 0.5706213583677778;
    ( 1, 0, 0 ) 0.12760423955941352, 0.8723957604405864;
    ( 1, 0, 1 ) 0.5424994721229571, 0.45750052787704293;
    ( 1, 1, 0 ) 0.6318851331382269, 0.36811486686177297;
    ( 1, 1, 1 ) 0.7757445544757724, 0.2242554455242276;

}
probability ( X23 | X2, X5, X13 ) {
    ( 0, 0, 0 ) 0.8579781192727323, 0.1420218807272678;
    ( 0, 0, 1 ) 0.4935297654821417, 0.5064702345178583;
    ( 0, 1, 0 ) 0.6983900703440418, 0.30160992965595823;
    ( 0, 1, 1 ) 0.42937864163222217, 0.5706213583677778;
    ( 1, 0, 0 ) 0.12760423955941352, 0.8723957604405864;
    ( 1, 0, 1 ) 0.5424994721229571, 0.45750052787704293;
    ( 1, 1, 0 ) 0.6318851331382269, 0.36811486686177297;
    ( 1, 1, 1 ) 0.7757445544757724, 0.2242554455242276;

}
probability ( X24 | X15, X19, X22 ) {
    ( 0, 0, 0 ) 0.8579781192727323, 0.1420218807272678;
    ( 0, 0, 1 ) 0.4935297654821417, 0.5064702345178583;
    ( 0, 1, 0 ) 0.6983900703440418, 0.30160992965595823;
    ( 0, 1, 1 ) 0.42937864163222217, 0.5706213583677778;
    ( 1, 0, 0 ) 0.12760423955941352, 0.8723957604405864;
    ( 1, 0, 1 ) 0.5424994721229571, 0.45750052787704293;
    ( 1, 1, 0 ) 0.6318851331382269, 0.36811486686177297;
    ( 1, 1, 1 ) 0.7757445544757724, 0.2242554455242276;

}
probability ( X25 | X9 ) {
    ( 0 ) 0.47407685350981643, 0.5259231464901836;
    ( 1 ) 0.38625285252692243, 0.6137471474730776;

}
probability ( X26 | X8, X25 ) {
    ( 0, 0 ) 0.891517423159326, 0.108482576840674;
    ( 0, 1 ) 0.3102709043528675, 0.6897290956471326;
    ( 1, 0 ) 0.530084569439896, 0.46991543056010404;
    ( 1, 1 ) 0.47010437410437317, 0.5298956258956268;

}
probability ( X27 | X9, X16 ) {
    ( 0, 0 ) 0.891517423159326, 0.108482576840674;
    ( 0, 1 ) 0.3102709043528675, 0.6897290956471326;
    ( 1, 0 ) 0.530084569439896, 0.46991543056010404;
    ( 1, 1 ) 0.47010437410437317, 0.5298956258956268;

}
probability ( X28 | X27 ) {
    ( 0 ) 0.47407685350981643, 0.5259231464901836;
    ( 1 ) 0.38625285252692243, 0.6137471474730776;

}
probability ( X29 ) {
    table 0.6381382257983801, 0.3618617742016198 ;
}
probability ( X3 ) {
    table 0.6381382257983801, 0.3618617742016198 ;
}
probability ( X30 | X17 ) {
    ( 0 ) 0.47407685350981643, 0.5259231464901836;
    ( 1 ) 0.38625285252692243, 0.6137471474730776;

}
probability ( X31 | X0 ) {
    ( 0 ) 0.47407685350981643, 0.5259231464901836;
    ( 1 ) 0.38625285252692243, 0.6137471474730776;

}
probability ( X32 | X5, X16, X21 ) {
    ( 0, 0, 0 ) 0.8579781192727323, 0.1420218807272678;
    ( 0, 0, 1 ) 0.4935297654821417, 0.5064702345178583;
    ( 0, 1, 0 ) 0.6983900703440418, 0.30160992965595823;
    ( 0, 1, 1 ) 0.42937864163222217, 0.5706213583677778;
    ( 1, 0, 0 ) 0.12760423955941352, 0.8723957604405864;
    ( 1, 0, 1 ) 0.5424994721229571, 0.45750052787704293;
    ( 1, 1, 0 ) 0.6318851331382269, 0.36811486686177297;
    ( 1, 1, 1 ) 0.7757445544757724, 0.2242554455242276;

}
probability ( X33 | X22, X29 ) {
    ( 0, 0 ) 0.891517423159326, 0.108482576840674;
    ( 0, 1 ) 0.3102709043528675, 0.6897290956471326;
    ( 1, 0 ) 0.530084569439896, 0.46991543056010404;
    ( 1, 1 ) 0.47010437410437317, 0.5298956258956268;

}
probability ( X34 | X22, X27 ) {
    ( 0, 0 ) 0.891517423159326, 0.108482576840674;
    ( 0, 1 ) 0.3102709043528675, 0.6897290956471326;
    ( 1, 0 ) 0.530084569439896, 0.46991543056010404;
    ( 1, 1 ) 0.47010437410437317, 0.5298956258956268;

}
probability ( X35 | X22 ) {
    ( 0 ) 0.47407685350981643, 0.5259231464901836;
    ( 1 ) 0.38625285252692243, 0.6137471474730776;

}
probability ( X36 ) {
    table 0.6381382257983801, 0.3618617742016198 ;
}
probability ( X37 | X20, X36 ) {
    ( 0, 0 ) 0.891517423159326, 0.108482576840674;
    ( 0, 1 ) 0.3102709043528675, 0.6897290956471326;
    ( 1, 0 ) 0.530084569439896, 0.46991543056010404;
    ( 1, 1 ) 0.47010437410437317, 0.5298956258956268;

}
probability ( X38 | X14, X24 ) {
    ( 0, 0 ) 0.891517423159326, 0.108482576840674;
    ( 0, 1 ) 0.3102709043528675, 0.6897290956471326;
    ( 1, 0 ) 0.530084569439896, 0.46991543056010404;
    ( 1, 1 ) 0.47010437410437317, 0.5298956258956268;

}
probability ( X39 | X7, X17, X35 ) {
    ( 0, 0, 0 ) 0.8579781192727323, 0.1420218807272678;
    ( 0, 0, 1 ) 0.4935297654821417, 0.5064702345178583;
    ( 0, 1, 0 ) 0.6983900703440418, 0.30160992965595823;
    ( 0, 1, 1 ) 0.42937864163222217, 0.5706213583677778;
    ( 1, 0, 0 ) 0.12760423955941352, 0.8723957604405864;
    ( 1, 0, 1 ) 0.5424994721229571, 0.45750052787704293;
    ( 1, 1, 0 ) 0.6318851331382269, 0.36811486686177297;
    ( 1, 1, 1 ) 0.7757445544757724, 0.2242554455242276;

}
probability ( X4 ) {
    table 0.6381382257983801, 0.3618617742016198 ;
}
probability ( X5 | X0 ) {
    ( 0 ) 0.47407685350981643, 0.5259231464901836;
    ( 1 ) 0.38625285252692243, 0.6137471474730776;

}
probability ( X6 ) {
    table 0.6381382257983801, 0.3618617742016198 ;
}
probability ( X7 ) {
    table 0.6381382257983801, 0.3618617742016198 ;
}
probability ( X8 ) {
    table 0.6381382257983801, 0.3618617742016198 ;
}
probability ( X9 | X4 ) {
    ( 0 ) 0.47407685350981643, 0.5259231464901836;
    ( 1 ) 0.38625285252692243, 0.6137471474730776;

}
